<?xml version="1.0"?>
<opencv_storage>
<stage0>
  <maxWeakCount>7</maxWeakCount>
  <stageThreshold>-5.5391173809766769e-02</stageThreshold>
  <weakClassifiers>
    <_>
      <internalNodes>
        0 -1 91457 -2.4258666671812534e-03</internalNodes>
      <leafValues>
        8.3807438611984253e-01 -7.0534068346023560e-01</leafValues></_>
    <_>
      <internalNodes>
        0 -1 106058 1.0348269715905190e-02</internalNodes>
      <leafValues>
        -9.0704792737960815e-01 6.2315827608108521e-01</leafValues></_>
    <_>
      <internalNodes>
        0 -1 99594 -1.5685927122831345e-02</internalNodes>
      <leafValues>
        5.4825025796890259e-01 -9.0467333793640137e-01</leafValues></_>
    <_>
      <internalNodes>
        0 -1 69940 -1.3553547672927380e-02</internalNodes>
      <leafValues>
        5.7171553373336792e-01 -7.9953545331954956e-01</leafValues></_>
    <_>
      <internalNodes>
        0 -1 42727 1.7827115952968597e-02</internalNodes>
      <leafValues>
        -5.4449242353439331e-01 9.0473049879074097e-01</leafValues></_>
    <_>
      <internalNodes>
        0 -1 9206 -8.1024281680583954e-03</internalNodes>
      <leafValues>
        5.6021189689636230e-01 -9.1691172122955322e-01</leafValues></_>
    <_>
      <internalNodes>
        0 -1 424 2.3620624095201492e-02</internalNodes>
      <leafValues>
        -9.3744653463363647e-01 4.4921287894248962e-01</leafValues></_></weakClassifiers></stage0>
</opencv_storage>
