<?xml version="1.0"?>
<opencv_storage>
<stage1>
  <maxWeakCount>6</maxWeakCount>
  <stageThreshold>-5.4925525188446045e-01</stageThreshold>
  <weakClassifiers>
    <_>
      <internalNodes>
        0 -1 67732 4.1589397005736828e-03</internalNodes>
      <leafValues>
        -5.7371795177459717e-01 9.5212763547897339e-01</leafValues></_>
    <_>
      <internalNodes>
        0 -1 62206 -5.3086010739207268e-03</internalNodes>
      <leafValues>
        9.5905399322509766e-01 -4.2475590109825134e-01</leafValues></_>
    <_>
      <internalNodes>
        0 -1 71252 4.1078813374042511e-03</internalNodes>
      <leafValues>
        -4.6534383296966553e-01 9.2068815231323242e-01</leafValues></_>
    <_>
      <internalNodes>
        0 -1 8 5.9996076743118465e-05</internalNodes>
      <leafValues>
        5.8461427688598633e-01 -9.4065850973129272e-01</leafValues></_>
    <_>
      <internalNodes>
        0 -1 86239 -5.7448409497737885e-03</internalNodes>
      <leafValues>
        1. -5.1201909780502319e-01</leafValues></_>
    <_>
      <internalNodes>
        0 -1 104374 -2.4773303419351578e-02</internalNodes>
      <leafValues>
        1. -5.2858895063400269e-01</leafValues></_></weakClassifiers></stage1>
</opencv_storage>
