<?xml version="1.0"?>
<opencv_storage>
<stage2>
  <maxWeakCount>8</maxWeakCount>
  <stageThreshold>-2.0265610516071320e-01</stageThreshold>
  <weakClassifiers>
    <_>
      <internalNodes>
        0 -1 424 2.5997528806328773e-02</internalNodes>
      <leafValues>
        -9.0643274784088135e-01 4.7112461924552917e-01</leafValues></_>
    <_>
      <internalNodes>
        0 -1 44950 -2.3142527788877487e-02</internalNodes>
      <leafValues>
        8.2315069437026978e-01 -5.2197700738906860e-01</leafValues></_>
    <_>
      <internalNodes>
        0 -1 624 6.6270781680941582e-03</internalNodes>
      <leafValues>
        -9.4716441631317139e-01 4.1700726747512817e-01</leafValues></_>
    <_>
      <internalNodes>
        0 -1 20304 -1.9198705558665097e-04</internalNodes>
      <leafValues>
        -8.8439118862152100e-01 3.9422929286956787e-01</leafValues></_>
    <_>
      <internalNodes>
        0 -1 48775 -7.0633463561534882e-02</internalNodes>
      <leafValues>
        9.4113212823867798e-01 -4.7784096002578735e-01</leafValues></_>
    <_>
      <internalNodes>
        0 -1 16314 -2.7456540614366531e-02</internalNodes>
      <leafValues>
        9.6307015419006348e-01 -4.7138479351997375e-01</leafValues></_>
    <_>
      <internalNodes>
        0 -1 123689 4.1677896660985425e-05</internalNodes>
      <leafValues>
        5.3860920667648315e-01 -9.9656951427459717e-01</leafValues></_>
    <_>
      <internalNodes>
        0 -1 62204 -5.8146845549345016e-03</internalNodes>
      <leafValues>
        9.6216821670532227e-01 -5.5242371559143066e-01</leafValues></_></weakClassifiers></stage2>
</opencv_storage>
