<?xml version="1.0"?>
<opencv_storage>
<stage0>
  <maxWeakCount>7</maxWeakCount>
  <stageThreshold>-8.5184969007968903e-02</stageThreshold>
  <weakClassifiers>
    <_>
      <internalNodes>
        0 -1 91457 -2.2200581151992083e-03</internalNodes>
      <leafValues>
        8.2056891918182373e-01 -6.9060772657394409e-01</leafValues></_>
    <_>
      <internalNodes>
        0 -1 106058 1.0223105549812317e-02</internalNodes>
      <leafValues>
        -8.8215029239654541e-01 6.1655575037002563e-01</leafValues></_>
    <_>
      <internalNodes>
        0 -1 9225 -9.3375341966748238e-03</internalNodes>
      <leafValues>
        5.0302726030349731e-01 -9.5534157752990723e-01</leafValues></_>
    <_>
      <internalNodes>
        0 -1 68325 4.3667815625667572e-03</internalNodes>
      <leafValues>
        -6.4758872985839844e-01 8.0620878934860229e-01</leafValues></_>
    <_>
      <internalNodes>
        0 -1 118611 -1.5943478792905807e-02</internalNodes>
      <leafValues>
        6.7009425163269043e-01 -7.6488411426544189e-01</leafValues></_>
    <_>
      <internalNodes>
        0 -1 69940 -9.9463518708944321e-03</internalNodes>
      <leafValues>
        5.2571380138397217e-01 -8.7128543853759766e-01</leafValues></_>
    <_>
      <internalNodes>
        0 -1 9191 1.9305657595396042e-02</internalNodes>
      <leafValues>
        -9.5876699686050415e-01 3.9598926901817322e-01</leafValues></_></weakClassifiers></stage0>
</opencv_storage>
