<?xml version="1.0"?>
<opencv_storage>
<stage1>
  <maxWeakCount>7</maxWeakCount>
  <stageThreshold>-2.0230877399444580e-01</stageThreshold>
  <weakClassifiers>
    <_>
      <internalNodes>
        0 -1 90021 4.9177575856447220e-03</internalNodes>
      <leafValues>
        -5.4992073774337769e-01 9.4037938117980957e-01</leafValues></_>
    <_>
      <internalNodes>
        0 -1 61276 3.7025799974799156e-03</internalNodes>
      <leafValues>
        -5.0820499658584595e-01 8.7563997507095337e-01</leafValues></_>
    <_>
      <internalNodes>
        0 -1 124795 6.2287232140079141e-05</internalNodes>
      <leafValues>
        4.8136144876480103e-01 -9.9737489223480225e-01</leafValues></_>
    <_>
      <internalNodes>
        0 -1 86239 -6.5063368529081345e-03</internalNodes>
      <leafValues>
        9.3855482339859009e-01 -4.8675706982612610e-01</leafValues></_>
    <_>
      <internalNodes>
        0 -1 70971 2.0661735907196999e-02</internalNodes>
      <leafValues>
        -5.7146656513214111e-01 9.4866013526916504e-01</leafValues></_>
    <_>
      <internalNodes>
        0 -1 624 9.9066998809576035e-03</internalNodes>
      <leafValues>
        -9.0986603498458862e-01 5.5717998743057251e-01</leafValues></_>
    <_>
      <internalNodes>
        0 -1 70640 -4.9584358930587769e-03</internalNodes>
      <leafValues>
        9.9236327409744263e-01 -5.0834578275680542e-01</leafValues></_></weakClassifiers></stage1>
</opencv_storage>
